<?xml version="1.0"?>
<opencv_storage>
<stage11>
  <maxWeakCount>8</maxWeakCount>
  <stageThreshold>-9.4724774360656738e-01</stageThreshold>
  <weakClassifiers>
    <_>
      <internalNodes>
        0 -1 113402 -1.8218433856964111e-01</internalNodes>
      <leafValues>
        3.3333334326744080e-01 -4.5909848809242249e-01</leafValues></_>
    <_>
      <internalNodes>
        0 -1 349955 -3.9874162757769227e-04</internalNodes>
      <leafValues>
        -8.8988906145095825e-01 1.6637456417083740e-01</leafValues></_>
    <_>
      <internalNodes>
        0 -1 201622 4.2652813717722893e-03</internalNodes>
      <leafValues>
        1.4141371846199036e-01 -9.4312673807144165e-01</leafValues></_>
    <_>
      <internalNodes>
        0 -1 31943 2.4735916405916214e-02</internalNodes>
      <leafValues>
        -3.6989018321037292e-01 3.5886079072952271e-01</leafValues></_>
    <_>
      <internalNodes>
        0 -1 1736 2.2603053366765380e-05</internalNodes>
      <leafValues>
        -3.4395980834960938e-01 3.9713507890701294e-01</leafValues></_>
    <_>
      <internalNodes>
        0 -1 24954 -5.2042860537767410e-02</internalNodes>
      <leafValues>
        5.8199167251586914e-01 -2.4789300560951233e-01</leafValues></_>
    <_>
      <internalNodes>
        0 -1 39171 3.7416565464809537e-04</internalNodes>
      <leafValues>
        1.8462030589580536e-01 -8.8326191902160645e-01</leafValues></_>
    <_>
      <internalNodes>
        0 -1 11176 -9.8776785307563841e-05</internalNodes>
      <leafValues>
        3.3697462081909180e-01 -4.2279657721519470e-01</leafValues></_></weakClassifiers></stage11>
</opencv_storage>
